<?xml version="1.0"?>
<opencv_storage>
<cascade>
  <stageType>BOOST</stageType>
  <featureType>HAAR</featureType>
  <height>24</height>
  <width>24</width>
  <stageParams>
    <boostType>GAB</boostType>
    <minHitRate>9.9500000476837158e-01</minHitRate>
    <maxFalseAlarm>2.0000000298023224e-01</maxFalseAlarm>
    <weightTrimRate>9.4999999999999996e-01</weightTrimRate>
    <maxDepth>1</maxDepth>
    <maxWeakCount>100</maxWeakCount></stageParams>
  <featureParams>
    <maxCatCount>0</maxCatCount>
    <featSize>1</featSize>
    <mode>BASIC</mode></featureParams>
  <stageNum>10</stageNum>
  <stages>
    <!-- stage 0 -->
    <_>
      <maxWeakCount>4</maxWeakCount>
      <stageThreshold>-6.7786347866058350e-01</stageThreshold>
      <weakClassifiers>
        <_>
          <internalNodes>
            0 -1 66 8.4945205599069595e-03</internalNodes>
          <leafValues>
            -9.4331985712051392e-01 9.0147781372070312e-01</leafValues></_>
        <_>
          <internalNodes>
            0 -1 8 1.0399138927459717e-01</internalNodes>
          <leafValues>
            -8.3881264925003052e-01 9.4722235202789307e-01</leafValues></_>
        <_>
          <internalNodes>
            0 -1 6 3.8930703885853291e-03</internalNodes>
          <leafValues>
            -9.1671651601791382e-01 6.3931441307067871e-01</leafValues></_>
        <_>
          <internalNodes>
            0 -1 58 4.2946026660501957e-03</internalNodes>
          <leafValues>
            -9.7869908809661865e-01 4.6495455503463745e-01</leafValues></_></weakClassifiers></_>
    <!-- stage 1 -->
    <_>
      <maxWeakCount>6</maxWeakCount>
      <stageThreshold>-9.6613383293151855e-01</stageThreshold>
      <weakClassifiers>
        <_>
          <internalNodes>
            0 -1 66 1.1380307376384735e-02</internalNodes>
          <leafValues>
            -8.3366334438323975e-01 8.1265825033187866e-01</leafValues></_>
        <_>
          <internalNodes>
            0 -1 73 -4.0801059454679489e-02</internalNodes>
          <leafValues>
            7.9825544357299805e-01 -6.6119086742401123e-01</leafValues></_>
        <_>
          <internalNodes>
            0 -1 29 4.0097152814269066e-03</internalNodes>
          <leafValues>
            -5.9762394428253174e-01 7.3164349794387817e-01</leafValues></_>
        <_>
          <internalNodes>
            0 -1 2 6.3559360802173615e-02</internalNodes>
          <leafValues>
            -8.3315414190292358e-01 4.7502812743186951e-01</leafValues></_>
        <_>
          <internalNodes>
            0 -1 52 3.0320591758936644e-03</internalNodes>
          <leafValues>
            -8.4228944778442383e-01 4.2015346884727478e-01</leafValues></_>
        <_>
          <internalNodes>
            0 -1 45 -3.1132251024246216e-05</internalNodes>
          <leafValues>
            -9.8828357458114624e-01 2.3116271197795868e-01</leafValues></_></weakClassifiers></_>
    <!-- stage 2 -->
    <_>
      <maxWeakCount>4</maxWeakCount>
      <stageThreshold>-6.8695318698883057e-01</stageThreshold>
      <weakClassifiers>
        <_>
          <internalNodes>
            0 -1 10 6.3733980059623718e-02</internalNodes>
          <leafValues>
            -8.2961457967758179e-01 7.5921374559402466e-01</leafValues></_>
        <_>
          <internalNodes>
            0 -1 55 3.4555062651634216e-02</internalNodes>
          <leafValues>
            -6.4325159788131714e-01 6.7340248823165894e-01</leafValues></_>
        <_>
          <internalNodes>
            0 -1 68 1.5442262520082295e-04</internalNodes>
          <leafValues>
            3.3213630318641663e-01 -9.9133312702178955e-01</leafValues></_>
        <_>
          <internalNodes>
            0 -1 68 -4.8614012484904379e-05</internalNodes>
          <leafValues>
            -9.0842843055725098e-01 4.5377668738365173e-01</leafValues></_></weakClassifiers></_>
    <!-- stage 3 -->
    <_>
      <maxWeakCount>6</maxWeakCount>
      <stageThreshold>-8.7250208854675293e-01</stageThreshold>
      <weakClassifiers>
        <_>
          <internalNodes>
            0 -1 64 2.3857032880187035e-02</internalNodes>
          <leafValues>
            -8.7179487943649292e-01 7.1296298503875732e-01</leafValues></_>
        <_>
          <internalNodes>
            0 -1 67 -6.1430423520505428e-03</internalNodes>
          <leafValues>
            6.6037738323211670e-01 -5.8500427007675171e-01</leafValues></_>
        <_>
          <internalNodes>
            0 -1 28 -4.2284101247787476e-02</internalNodes>
          <leafValues>
            5.8896815776824951e-01 -5.9562933444976807e-01</leafValues></_>
        <_>
          <internalNodes>
            0 -1 12 1.9658487290143967e-03</internalNodes>
          <leafValues>
            -9.5058590173721313e-01 3.4685847163200378e-01</leafValues></_>
        <_>
          <internalNodes>
            0 -1 69 -2.5471649132668972e-03</internalNodes>
          <leafValues>
            5.4615306854248047e-01 -7.0648115873336792e-01</leafValues></_>
        <_>
          <internalNodes>
            0 -1 74 -2.3030664771795273e-02</internalNodes>
          <leafValues>
            3.5495156049728394e-01 -7.0560848712921143e-01</leafValues></_></weakClassifiers></_>
    <!-- stage 4 -->
    <_>
      <maxWeakCount>10</maxWeakCount>
      <stageThreshold>-1.2230561971664429e+00</stageThreshold>
      <weakClassifiers>
        <_>
          <internalNodes>
            0 -1 32 -2.2097472101449966e-02</internalNodes>
          <leafValues>
            7.1788412332534790e-01 -7.6540756225585938e-01</leafValues></_>
        <_>
          <internalNodes>
            0 -1 61 -1.2296635657548904e-02</internalNodes>
          <leafValues>
            4.7535225749015808e-01 -7.0769333839416504e-01</leafValues></_>
        <_>
          <internalNodes>
            0 -1 18 1.1314107105135918e-02</internalNodes>
          <leafValues>
            -4.7745892405509949e-01 6.1867147684097290e-01</leafValues></_>
        <_>
          <internalNodes>
            0 -1 7 8.2199506461620331e-02</internalNodes>
          <leafValues>
            -7.9762899875640869e-01 3.1117621064186096e-01</leafValues></_>
        <_>
          <internalNodes>
            0 -1 65 1.3403741177171469e-03</internalNodes>
          <leafValues>
            -8.0514174699783325e-01 3.1477066874504089e-01</leafValues></_>
        <_>
          <internalNodes>
            0 -1 46 -9.1970283538103104e-03</internalNodes>
          <leafValues>
            -7.5962531566619873e-01 2.5668349862098694e-01</leafValues></_>
        <_>
          <internalNodes>
            0 -1 38 8.6140178609639406e-05</internalNodes>
          <leafValues>
            -9.1020381450653076e-01 2.1422712504863739e-01</leafValues></_>
        <_>
          <internalNodes>
            0 -1 15 2.0569930784404278e-03</internalNodes>
          <leafValues>
            2.7418258786201477e-01 -7.7027881145477295e-01</leafValues></_>
        <_>
          <internalNodes>
            0 -1 4 3.5101663321256638e-02</internalNodes>
          <leafValues>
            -9.0615451335906982e-01 1.1671521514654160e-01</leafValues></_>
        <_>
          <internalNodes>
            0 -1 51 -1.3366339262574911e-03</internalNodes>
          <leafValues>
            3.5966074466705322e-01 -6.6777843236923218e-01</leafValues></_></weakClassifiers></_>
    <!-- stage 5 -->
    <_>
      <maxWeakCount>10</maxWeakCount>
      <stageThreshold>-7.6723647117614746e-01</stageThreshold>
      <weakClassifiers>
        <_>
          <internalNodes>
            0 -1 53 2.6788059622049332e-02</internalNodes>
          <leafValues>
            -8.0382776260375977e-01 4.8962655663490295e-01</leafValues></_>
        <_>
          <internalNodes>
            0 -1 43 7.6887957751750946e-02</internalNodes>
          <leafValues>
            -4.7603473067283630e-01 7.1283090114593506e-01</leafValues></_>
        <_>
          <internalNodes>
            0 -1 31 -2.1213244646787643e-02</internalNodes>
          <leafValues>
            -8.5958647727966309e-01 2.7093151211738586e-01</leafValues></_>
        <_>
          <internalNodes>
            0 -1 62 1.4260836876928806e-02</internalNodes>
          <leafValues>
            -6.9078999757766724e-01 2.8560605645179749e-01</leafValues></_>
        <_>
          <internalNodes>
            0 -1 33 1.3971325824968517e-04</internalNodes>
          <leafValues>
            2.4131284654140472e-01 -7.9445570707321167e-01</leafValues></_>
        <_>
          <internalNodes>
            0 -1 69 -2.8898525051772594e-03</internalNodes>
          <leafValues>
            3.0648627877235413e-01 -6.5187454223632812e-01</leafValues></_>
        <_>
          <internalNodes>
            0 -1 21 -8.4299615991767496e-05</internalNodes>
          <leafValues>
            2.5934374332427979e-01 -7.2090131044387817e-01</leafValues></_>
        <_>
          <internalNodes>
            0 -1 71 1.5050367219373584e-03</internalNodes>
          <leafValues>
            2.4206316471099854e-01 -7.9569852352142334e-01</leafValues></_>
        <_>
          <internalNodes>
            0 -1 30 3.3840357791632414e-03</internalNodes>
          <leafValues>
            -3.3047884702682495e-01 7.1369743347167969e-01</leafValues></_>
        <_>
          <internalNodes>
            0 -1 22 5.9277848340570927e-03</internalNodes>
          <leafValues>
            -9.1989010572433472e-01 2.7512291073799133e-01</leafValues></_></weakClassifiers></_>
    <!-- stage 6 -->
    <_>
      <maxWeakCount>11</maxWeakCount>
      <stageThreshold>-1.0957006216049194e+00</stageThreshold>
      <weakClassifiers>
        <_>
          <internalNodes>
            0 -1 72 -4.5970849692821503e-02</internalNodes>
          <leafValues>
            5.8311343193054199e-01 -6.1612284183502197e-01</leafValues></_>
        <_>
          <internalNodes>
            0 -1 34 -3.0987253412604332e-03</internalNodes>
          <leafValues>
            6.2396538257598877e-01 -5.1953452825546265e-01</leafValues></_>
        <_>
          <internalNodes>
            0 -1 49 3.5891719162464142e-02</internalNodes>
          <leafValues>
            -3.3230930566787720e-01 7.2949784994125366e-01</leafValues></_>
        <_>
          <internalNodes>
            0 -1 9 -1.0312515310943127e-02</internalNodes>
          <leafValues>
            -9.1405612230300903e-01 2.2330167889595032e-01</leafValues></_>
        <_>
          <internalNodes>
            0 -1 57 -2.4546920321881771e-03</internalNodes>
          <leafValues>
            6.0086232423782349e-01 -3.6291033029556274e-01</leafValues></_>
        <_>
          <internalNodes>
            0 -1 60 -1.0192766785621643e-04</internalNodes>
          <leafValues>
            -1. 2.4287538230419159e-01</leafValues></_>
        <_>
          <internalNodes>
            0 -1 0 1.4698185026645660e-01</internalNodes>
          <leafValues>
            -6.6779226064682007e-01 2.7858656644821167e-01</leafValues></_>
        <_>
          <internalNodes>
            0 -1 20 1.5995701774954796e-02</internalNodes>
          <leafValues>
            -5.6944525241851807e-01 3.4211239218711853e-01</leafValues></_>
        <_>
          <internalNodes>
            0 -1 68 -1.5084780170582235e-04</internalNodes>
          <leafValues>
            -9.6134555339813232e-01 1.9434355199337006e-01</leafValues></_>
        <_>
          <internalNodes>
            0 -1 5 2.7819078415632248e-02</internalNodes>
          <leafValues>
            -8.2850813865661621e-01 1.3648527860641479e-01</leafValues></_>
        <_>
          <internalNodes>
            0 -1 78 1.2034871615469456e-03</internalNodes>
          <leafValues>
            2.2902914881706238e-01 -7.0772927999496460e-01</leafValues></_></weakClassifiers></_>
    <!-- stage 7 -->
    <_>
      <maxWeakCount>14</maxWeakCount>
      <stageThreshold>-1.0582133531570435e+00</stageThreshold>
      <weakClassifiers>
        <_>
          <internalNodes>
            0 -1 58 1.7376400530338287e-02</internalNodes>
          <leafValues>
            -7.1889400482177734e-01 4.5493561029434204e-01</leafValues></_>
        <_>
          <internalNodes>
            0 -1 54 1.8755188211798668e-03</internalNodes>
          <leafValues>
            -7.3997741937637329e-01 2.9662525653839111e-01</leafValues></_>
        <_>
          <internalNodes>
            0 -1 3 1.1749122291803360e-01</internalNodes>
          <leafValues>
            -6.0332638025283813e-01 4.0366035699844360e-01</leafValues></_>
        <_>
          <internalNodes>
            0 -1 39 -1.3867385685443878e-02</internalNodes>
          <leafValues>
            8.1294417381286621e-01 -2.7558216452598572e-01</leafValues></_>
        <_>
          <internalNodes>
            0 -1 16 1.5649806708097458e-02</internalNodes>
          <leafValues>
            -6.9555985927581787e-01 2.8670975565910339e-01</leafValues></_>
        <_>
          <internalNodes>
            0 -1 47 -6.5551756415516138e-04</internalNodes>
          <leafValues>
            -9.0532422065734863e-01 1.4118885993957520e-01</leafValues></_>
        <_>
          <internalNodes>
            0 -1 26 -3.8937240839004517e-02</internalNodes>
          <leafValues>
            8.0316954851150513e-01 -2.5579831004142761e-01</leafValues></_>
        <_>
          <internalNodes>
            0 -1 75 -1.2902881950139999e-02</internalNodes>
          <leafValues>
            3.8422983884811401e-01 -6.6133910417556763e-01</leafValues></_>
        <_>
          <internalNodes>
            0 -1 76 -6.9721955806016922e-03</internalNodes>
          <leafValues>
            -8.0720877647399902e-01 1.9369578361511230e-01</leafValues></_>
        <_>
          <internalNodes>
            0 -1 50 5.9837467968463898e-02</internalNodes>
          <leafValues>
            1.5880355238914490e-01 -8.1410682201385498e-01</leafValues></_>
        <_>
          <internalNodes>
            0 -1 65 1.4493300113826990e-03</internalNodes>
          <leafValues>
            -7.4933880567550659e-01 2.0856283605098724e-01</leafValues></_>
        <_>
          <internalNodes>
            0 -1 80 -3.4087435342371464e-03</internalNodes>
          <leafValues>
            -8.9089685678482056e-01 2.0184029638767242e-01</leafValues></_>
        <_>
          <internalNodes>
            0 -1 37 4.9274163320660591e-03</internalNodes>
          <leafValues>
            -3.1896567344665527e-01 6.4915347099304199e-01</leafValues></_>
        <_>
          <internalNodes>
            0 -1 63 -4.8160194419324398e-03</internalNodes>
          <leafValues>
            -7.5730299949645996e-01 2.9668167233467102e-01</leafValues></_></weakClassifiers></_>
    <!-- stage 8 -->
    <_>
      <maxWeakCount>13</maxWeakCount>
      <stageThreshold>-1.2457025051116943e+00</stageThreshold>
      <weakClassifiers>
        <_>
          <internalNodes>
            0 -1 14 8.3147928118705750e-02</internalNodes>
          <leafValues>
            -5.2920353412628174e-01 5.9402984380722046e-01</leafValues></_>
        <_>
          <internalNodes>
            0 -1 17 1.2581789866089821e-02</internalNodes>
          <leafValues>
            -6.5512466430664062e-01 3.6225381493568420e-01</leafValues></_>
        <_>
          <internalNodes>
            0 -1 25 -1.3893492519855499e-01</internalNodes>
          <leafValues>
            4.0841025114059448e-01 -4.9793675541877747e-01</leafValues></_>
        <_>
          <internalNodes>
            0 -1 24 -2.7127633802592754e-03</internalNodes>
          <leafValues>
            2.8212639689445496e-01 -7.1308559179306030e-01</leafValues></_>
        <_>
          <internalNodes>
            0 -1 77 5.4544629529118538e-03</internalNodes>
          <leafValues>
            -2.9227790236473083e-01 7.2665035724639893e-01</leafValues></_>
        <_>
          <internalNodes>
            0 -1 19 2.3806214332580566e-02</internalNodes>
          <leafValues>
            -3.2105273008346558e-01 7.0601540803909302e-01</leafValues></_>
        <_>
          <internalNodes>
            0 -1 68 7.8701887105125934e-05</internalNodes>
          <leafValues>
            2.1273276209831238e-01 -8.9966791868209839e-01</leafValues></_>
        <_>
          <internalNodes>
            0 -1 41 -1.9993209280073643e-03</internalNodes>
          <leafValues>
            -7.5376731157302856e-01 2.1724963188171387e-01</leafValues></_>
        <_>
          <internalNodes>
            0 -1 68 -3.5100725654046983e-05</internalNodes>
          <leafValues>
            -8.1245440244674683e-01 2.4737812578678131e-01</leafValues></_>
        <_>
          <internalNodes>
            0 -1 70 2.7700080536305904e-03</internalNodes>
          <leafValues>
            1.2749253213405609e-01 -7.9982864856719971e-01</leafValues></_>
        <_>
          <internalNodes>
            0 -1 13 1.5721328556537628e-02</internalNodes>
          <leafValues>
            -7.9104667901992798e-01 2.0659433305263519e-01</leafValues></_>
        <_>
          <internalNodes>
            0 -1 36 -7.0987641811370850e-04</internalNodes>
          <leafValues>
            2.0708577334880829e-01 -7.7854424715042114e-01</leafValues></_>
        <_>
          <internalNodes>
            0 -1 35 -1.8613769207149744e-03</internalNodes>
          <leafValues>
            4.6735131740570068e-01 -4.1800203919410706e-01</leafValues></_></weakClassifiers></_>
    <!-- stage 9 -->
    <_>
      <maxWeakCount>11</maxWeakCount>
      <stageThreshold>-7.3194426298141479e-01</stageThreshold>
      <weakClassifiers>
        <_>
          <internalNodes>
            0 -1 56 -4.9977777525782585e-03</internalNodes>
          <leafValues>
            9.0147781372070312e-01 -4.0602582693099976e-01</leafValues></_>
        <_>
          <internalNodes>
            0 -1 44 4.5653008855879307e-03</internalNodes>
          <leafValues>
            -2.6968359947204590e-01 9.1990882158279419e-01</leafValues></_>
        <_>
          <internalNodes>
            0 -1 42 -5.3394734859466553e-03</internalNodes>
          <leafValues>
            4.7107526659965515e-01 -5.7311886548995972e-01</leafValues></_>
        <_>
          <internalNodes>
            0 -1 79 -9.4630178064107895e-03</internalNodes>
          <leafValues>
            -5.9433734416961670e-01 3.8439187407493591e-01</leafValues></_>
        <_>
          <internalNodes>
            0 -1 23 2.9064458794891834e-03</internalNodes>
          <leafValues>
            3.4084495902061462e-01 -7.2624784708023071e-01</leafValues></_>
        <_>
          <internalNodes>
            0 -1 40 2.2379306610673666e-03</internalNodes>
          <leafValues>
            -9.0707951784133911e-01 2.0852470397949219e-01</leafValues></_>
        <_>
          <internalNodes>
            0 -1 27 3.0649388208985329e-03</internalNodes>
          <leafValues>
            3.0674570798873901e-01 -7.6591426134109497e-01</leafValues></_>
        <_>
          <internalNodes>
            0 -1 11 -3.1256054062396288e-03</internalNodes>
          <leafValues>
            -8.1591087579727173e-01 1.6576242446899414e-01</leafValues></_>
        <_>
          <internalNodes>
            0 -1 48 -5.3037106990814209e-03</internalNodes>
          <leafValues>
            -6.4543992280960083e-01 3.2101288437843323e-01</leafValues></_>
        <_>
          <internalNodes>
            0 -1 59 -1.0035233572125435e-02</internalNodes>
          <leafValues>
            5.3965389728546143e-01 -4.4901135563850403e-01</leafValues></_>
        <_>
          <internalNodes>
            0 -1 1 1.5585210919380188e-01</internalNodes>
          <leafValues>
            -5.9654897451400757e-01 3.5421708226203918e-01</leafValues></_></weakClassifiers></_></stages>
  <features>
    <_>
      <rects>
        <_>
          0 0 24 19 -1.</_>
        <_>
          8 0 8 19 3.</_></rects>
      <tilted>0</tilted></_>
    <_>
      <rects>
        <_>
          0 0 24 22 -1.</_>
        <_>
          8 0 8 22 3.</_></rects>
      <tilted>0</tilted></_>
    <_>
      <rects>
        <_>
          0 1 16 18 -1.</_>
        <_>
          0 7 16 6 3.</_></rects>
      <tilted>0</tilted></_>
    <_>
      <rects>
        <_>
          0 3 18 11 -1.</_>
        <_>
          6 3 6 11 3.</_></rects>
      <tilted>0</tilted></_>
    <_>
      <rects>
        <_>
          0 6 18 9 -1.</_>
        <_>
          6 6 6 9 3.</_></rects>
      <tilted>0</tilted></_>
    <_>
      <rects>
        <_>
          0 10 15 14 -1.</_>
        <_>
          5 10 5 14 3.</_></rects>
      <tilted>0</tilted></_>
    <_>
      <rects>
        <_>
          0 12 12 1 -1.</_>
        <_>
          6 12 6 1 2.</_></rects>
      <tilted>0</tilted></_>
    <_>
      <rects>
        <_>
          1 4 18 19 -1.</_>
        <_>
          7 4 6 19 3.</_></rects>
      <tilted>0</tilted></_>
    <_>
      <rects>
        <_>
          1 5 15 17 -1.</_>
        <_>
          6 5 5 17 3.</_></rects>
      <tilted>0</tilted></_>
    <_>
      <rects>
        <_>
          1 18 5 6 -1.</_>
        <_>
          1 20 5 2 3.</_></rects>
      <tilted>0</tilted></_>
    <_>
      <rects>
        <_>
          2 9 12 7 -1.</_>
        <_>
          6 9 4 7 3.</_></rects>
      <tilted>0</tilted></_>
    <_>
      <rects>
        <_>
          3 5 1 9 -1.</_>
        <_>
          3 8 1 3 3.</_></rects>
      <tilted>0</tilted></_>
    <_>
      <rects>
        <_>
          3 5 21 5 -1.</_>
        <_>
          10 5 7 5 3.</_></rects>
      <tilted>0</tilted></_>
    <_>
      <rects>
        <_>
          3 7 21 5 -1.</_>
        <_>
          10 7 7 5 3.</_></rects>
      <tilted>0</tilted></_>
    <_>
      <rects>
        <_>
          3 10 9 6 -1.</_>
        <_>
          6 10 3 6 3.</_></rects>
      <tilted>0</tilted></_>
    <_>
      <rects>
        <_>
          4 1 6 2 -1.</_>
        <_>
          7 1 3 2 2.</_></rects>
      <tilted>0</tilted></_>
    <_>
      <rects>
        <_>
          4 5 7 18 -1.</_>
        <_>
          4 11 7 6 3.</_></rects>
      <tilted>0</tilted></_>
    <_>
      <rects>
        <_>
          4 9 10 4 -1.</_>
        <_>
          4 9 5 2 2.</_>
        <_>
          9 11 5 2 2.</_></rects>
      <tilted>0</tilted></_>
    <_>
      <rects>
        <_>
          4 11 4 2 -1.</_>
        <_>
          6 11 2 2 2.</_></rects>
      <tilted>0</tilted></_>
    <_>
      <rects>
        <_>
          4 13 6 3 -1.</_>
        <_>
          7 13 3 3 2.</_></rects>
      <tilted>0</tilted></_>
    <_>
      <rects>
        <_>
          4 13 12 10 -1.</_>
        <_>
          4 13 6 5 2.</_>
        <_>
          10 18 6 5 2.</_></rects>
      <tilted>0</tilted></_>
    <_>
      <rects>
        <_>
          5 1 8 10 -1.</_>
        <_>
          5 1 4 5 2.</_>
        <_>
          9 6 4 5 2.</_></rects>
      <tilted>0</tilted></_>
    <_>
      <rects>
        <_>
          5 10 8 6 -1.</_>
        <_>
          5 12 8 2 3.</_></rects>
      <tilted>0</tilted></_>
    <_>
      <rects>
        <_>
          5 11 12 3 -1.</_>
        <_>
          11 11 6 3 2.</_></rects>
      <tilted>0</tilted></_>
    <_>
      <rects>
        <_>
          5 12 6 4 -1.</_>
        <_>
          5 14 6 2 2.</_></rects>
      <tilted>0</tilted></_>
    <_>
      <rects>
        <_>
          6 4 18 11 -1.</_>
        <_>
          15 4 9 11 2.</_></rects>
      <tilted>0</tilted></_>
    <_>
      <rects>
        <_>
          6 6 4 12 -1.</_>
        <_>
          6 6 2 6 2.</_>
        <_>
          8 12 2 6 2.</_></rects>
      <tilted>0</tilted></_>
    <_>
      <rects>
        <_>
          6 10 9 5 -1.</_>
        <_>
          9 10 3 5 3.</_></rects>
      <tilted>0</tilted></_>
    <_>
      <rects>
        <_>
          6 10 3 14 -1.</_>
        <_>
          6 17 3 7 2.</_></rects>
      <tilted>0</tilted></_>
    <_>
      <rects>
        <_>
          6 11 3 3 -1.</_>
        <_>
          7 11 1 3 3.</_></rects>
      <tilted>0</tilted></_>
    <_>
      <rects>
        <_>
          6 14 3 1 -1.</_>
        <_>
          7 14 1 1 3.</_></rects>
      <tilted>0</tilted></_>
    <_>
      <rects>
        <_>
          7 0 15 15 -1.</_>
        <_>
          7 5 15 5 3.</_></rects>
      <tilted>0</tilted></_>
    <_>
      <rects>
        <_>
          7 9 9 2 -1.</_>
        <_>
          10 9 3 2 3.</_></rects>
      <tilted>0</tilted></_>
    <_>
      <rects>
        <_>
          7 11 1 2 -1.</_>
        <_>
          7 12 1 1 2.</_></rects>
      <tilted>0</tilted></_>
    <_>
      <rects>
        <_>
          7 11 2 3 -1.</_>
        <_>
          8 11 1 3 2.</_></rects>
      <tilted>0</tilted></_>
    <_>
      <rects>
        <_>
          7 11 3 11 -1.</_>
        <_>
          8 11 1 11 3.</_></rects>
      <tilted>0</tilted></_>
    <_>
      <rects>
        <_>
          7 12 6 4 -1.</_>
        <_>
          7 12 3 2 2.</_>
        <_>
          10 14 3 2 2.</_></rects>
      <tilted>0</tilted></_>
    <_>
      <rects>
        <_>
          7 13 2 5 -1.</_>
        <_>
          8 13 1 5 2.</_></rects>
      <tilted>0</tilted></_>
    <_>
      <rects>
        <_>
          8 9 15 2 -1.</_>
        <_>
          13 9 5 2 3.</_></rects>
      <tilted>0</tilted></_>
    <_>
      <rects>
        <_>
          8 11 8 2 -1.</_>
        <_>
          8 11 4 1 2.</_>
        <_>
          12 12 4 1 2.</_></rects>
      <tilted>0</tilted></_>
    <_>
      <rects>
        <_>
          8 12 9 1 -1.</_>
        <_>
          11 12 3 1 3.</_></rects>
      <tilted>0</tilted></_>
    <_>
      <rects>
        <_>
          9 0 15 15 -1.</_>
        <_>
          9 5 15 5 3.</_></rects>
      <tilted>0</tilted></_>
    <_>
      <rects>
        <_>
          9 1 6 17 -1.</_>
        <_>
          11 1 2 17 3.</_></rects>
      <tilted>0</tilted></_>
    <_>
      <rects>
        <_>
          9 7 12 5 -1.</_>
        <_>
          13 7 4 5 3.</_></rects>
      <tilted>0</tilted></_>
    <_>
      <rects>
        <_>
          9 10 1 3 -1.</_>
        <_>
          9 11 1 1 3.</_></rects>
      <tilted>0</tilted></_>
    <_>
      <rects>
        <_>
          9 12 4 1 -1.</_>
        <_>
          11 12 2 1 2.</_></rects>
      <tilted>0</tilted></_>
    <_>
      <rects>
        <_>
          9 13 4 9 -1.</_>
        <_>
          9 16 4 3 3.</_></rects>
      <tilted>0</tilted></_>
    <_>
      <rects>
        <_>
          9 14 1 2 -1.</_>
        <_>
          9 15 1 1 2.</_></rects>
      <tilted>0</tilted></_>
    <_>
      <rects>
        <_>
          10 0 6 12 -1.</_>
        <_>
          10 4 6 4 3.</_></rects>
      <tilted>0</tilted></_>
    <_>
      <rects>
        <_>
          10 1 3 9 -1.</_>
        <_>
          10 4 3 3 3.</_></rects>
      <tilted>0</tilted></_>
    <_>
      <rects>
        <_>
          10 3 4 18 -1.</_>
        <_>
          10 9 4 6 3.</_></rects>
      <tilted>0</tilted></_>
    <_>
      <rects>
        <_>
          10 4 3 8 -1.</_>
        <_>
          10 8 3 4 2.</_></rects>
      <tilted>0</tilted></_>
    <_>
      <rects>
        <_>
          10 4 6 8 -1.</_>
        <_>
          10 4 3 4 2.</_>
        <_>
          13 8 3 4 2.</_></rects>
      <tilted>0</tilted></_>
    <_>
      <rects>
        <_>
          10 9 3 6 -1.</_>
        <_>
          10 11 3 2 3.</_></rects>
      <tilted>0</tilted></_>
    <_>
      <rects>
        <_>
          10 9 6 4 -1.</_>
        <_>
          13 9 3 4 2.</_></rects>
      <tilted>0</tilted></_>
    <_>
      <rects>
        <_>
          10 9 4 6 -1.</_>
        <_>
          10 11 4 2 3.</_></rects>
      <tilted>0</tilted></_>
    <_>
      <rects>
        <_>
          10 10 1 3 -1.</_>
        <_>
          10 11 1 1 3.</_></rects>
      <tilted>0</tilted></_>
    <_>
      <rects>
        <_>
          10 11 3 1 -1.</_>
        <_>
          11 11 1 1 3.</_></rects>
      <tilted>0</tilted></_>
    <_>
      <rects>
        <_>
          10 11 3 3 -1.</_>
        <_>
          10 12 3 1 3.</_></rects>
      <tilted>0</tilted></_>
    <_>
      <rects>
        <_>
          10 11 6 2 -1.</_>
        <_>
          10 11 3 1 2.</_>
        <_>
          13 12 3 1 2.</_></rects>
      <tilted>0</tilted></_>
    <_>
      <rects>
        <_>
          10 12 3 1 -1.</_>
        <_>
          11 12 1 1 3.</_></rects>
      <tilted>0</tilted></_>
    <_>
      <rects>
        <_>
          10 12 10 1 -1.</_>
        <_>
          15 12 5 1 2.</_></rects>
      <tilted>0</tilted></_>
    <_>
      <rects>
        <_>
          11 3 4 18 -1.</_>
        <_>
          11 9 4 6 3.</_></rects>
      <tilted>0</tilted></_>
    <_>
      <rects>
        <_>
          11 6 8 9 -1.</_>
        <_>
          11 9 8 3 3.</_></rects>
      <tilted>0</tilted></_>
    <_>
      <rects>
        <_>
          11 9 3 6 -1.</_>
        <_>
          11 11 3 2 3.</_></rects>
      <tilted>0</tilted></_>
    <_>
      <rects>
        <_>
          11 11 2 2 -1.</_>
        <_>
          11 12 2 1 2.</_></rects>
      <tilted>0</tilted></_>
    <_>
      <rects>
        <_>
          11 11 2 3 -1.</_>
        <_>
          11 12 2 1 3.</_></rects>
      <tilted>0</tilted></_>
    <_>
      <rects>
        <_>
          11 11 4 2 -1.</_>
        <_>
          11 11 2 1 2.</_>
        <_>
          13 12 2 1 2.</_></rects>
      <tilted>0</tilted></_>
    <_>
      <rects>
        <_>
          11 12 2 1 -1.</_>
        <_>
          12 12 1 1 2.</_></rects>
      <tilted>0</tilted></_>
    <_>
      <rects>
        <_>
          12 12 1 3 -1.</_>
        <_>
          12 13 1 1 3.</_></rects>
      <tilted>0</tilted></_>
    <_>
      <rects>
        <_>
          12 13 8 2 -1.</_>
        <_>
          12 13 4 1 2.</_>
        <_>
          16 14 4 1 2.</_></rects>
      <tilted>0</tilted></_>
    <_>
      <rects>
        <_>
          13 1 5 2 -1.</_>
        <_>
          13 2 5 1 2.</_></rects>
      <tilted>0</tilted></_>
    <_>
      <rects>
        <_>
          13 5 6 8 -1.</_>
        <_>
          16 5 3 8 2.</_></rects>
      <tilted>0</tilted></_>
    <_>
      <rects>
        <_>
          13 5 8 8 -1.</_>
        <_>
          17 5 4 8 2.</_></rects>
      <tilted>0</tilted></_>
    <_>
      <rects>
        <_>
          13 7 4 12 -1.</_>
        <_>
          13 13 4 6 2.</_></rects>
      <tilted>0</tilted></_>
    <_>
      <rects>
        <_>
          13 9 2 10 -1.</_>
        <_>
          13 14 2 5 2.</_></rects>
      <tilted>0</tilted></_>
    <_>
      <rects>
        <_>
          14 0 9 3 -1.</_>
        <_>
          17 0 3 3 3.</_></rects>
      <tilted>0</tilted></_>
    <_>
      <rects>
        <_>
          14 6 2 6 -1.</_>
        <_>
          15 6 1 6 2.</_></rects>
      <tilted>0</tilted></_>
    <_>
      <rects>
        <_>
          14 13 4 4 -1.</_>
        <_>
          14 13 2 2 2.</_>
        <_>
          16 15 2 2 2.</_></rects>
      <tilted>0</tilted></_>
    <_>
      <rects>
        <_>
          17 6 6 17 -1.</_>
        <_>
          19 6 2 17 3.</_></rects>
      <tilted>0</tilted></_>
    <_>
      <rects>
        <_>
          20 11 3 10 -1.</_>
        <_>
          21 11 1 10 3.</_></rects>
      <tilted>0</tilted></_></features></cascade>
</opencv_storage>
